const short conv1_w[864] = {
-230, 523, -860, 477, 470, 847, -1045, 465, -4698, 162, 413, -987, 493, 397, 601, -667, 
809, -4634, -27, -90, -159, 47, -641, 1027, -342, 638, -2661, -739, 201, 351, 1035, 855, 
-52, -399, -1656, -1317, -20, 560, -212, -400, 67, -402, 116, 1881, -95, 298, -1141, -720, 
-249, -601, 348, -959, -1278, -1885, -67, 171, -381, -713, -69, -126, 337, -62, 674, 242, 
-61, -122, 78, 454, -417, 41, 593, -445, -310, 320, 216, 124, 26, 439, -530, -505, 
-133, 1152, 56, -842, -991, -715, -1764, 773, -222, -471, 1604, 1235, -602, -578, -185, 510, 
1524, -320, -675, -1540, 154, -1427, 517, -489, -876, 268, 587, 1345, -1061, 856, 53, -1792, 
-621, -1937, 1781, 1236, 1664, -163, -519, -313, -1162, -258, -1251, 1119, 469, 1818, 918, 1272, 
-247, -674, -360, -1351, 230, 322, 65, 0, 0, 0, 0, 0, 0, 0, 0, 0, 
0, 0, 0, 0, 0, 0, 0, 0, 0, 0, 0, 0, 0, 0, 0, 0, 
0, 0, -700, -393, -1115, -862, 180, -1547, 276, -1393, 348, -83, 991, 1000, -443, 761, 
996, 247, 1119, 1658, 609, 971, 810, 534, -56, 864, 505, 15, 384, 210, 214, 139, 
68, 101, -228, -567, -114, -427, 125, -183, -544, 451, 192, -104, 780, 596, 285, -315, 
74, 370, -410, 31, 269, -578, -154, 292, -141, -194, -40, -252, -492, -142, 117, -16, 
82, 1500, 1297, 1537, 1125, 967, 1192, 1432, 1185, 1467, -1403, -1003, -1571, -933, -522, -1014, 
-1546, -1153, -1614, 375, 1790, -752, 1133, 249, 1058, 766, 1705, 1323, -1434, 1422, -1212, 284, 
-153, -71, -465, 27, 119, -699, 242, -1745, 357, -998, -175, -1682, -927, -200, 3297, -458, 
-318, 1170, -884, -211, 1526, -1921, -1835, 2652, -448, -517, 1049, -620, 46, 1318, -2113, -2021, 
2430, -889, -598, 1172, -548, 447, 1725, -1872, -1653, -1755, 566, -115, -1659, 227, -207, -1802, 
539, -91, -1554, 696, 102, -1465, 346, -9, -1612, 656, 99, -1126, 69, -151, -1061, -249, 
-220, -1203, 44, -158, -1002, 621, -2085, 1257, 1279, -910, -278, 342, 209, -1062, -1488, -707, 
-261, -1307, 1110, -1449, -727, 271, 1381, -638, 1145, -891, 1600, 562, 657, -1103, -498, -208, 
561, 1204, -457, 173, 921, -1049, -755, 208, -810, -495, -1061, -166, 11, -263, 586, 772, 
568, 1503, -96, -377, 718, -363, -610, 1337, -248, -749, 577, 86, -173, 398, 391, -339, 
-626, 215, -195, -726, -517, -76, -545, 434, 41, -1084, 191, 513, 487, -65, 619, -384, 
-945, -266, 169, 195, 526, -1716, -652, -667, 247, 312, 451, -19, -657, 634, 523, -177, 
-439, 1082, 1076, -341, 509, -854, 931, -1495, -1479, 208, 18, 604, -688, -275, -267, 350, 
-44, -1041, 4225, -1223, -2170, 321, -415, -1305, 1872, 760, -1113, 2910, -424, -1897, 239, -33, 
-1280, 618, 1065, -578, 2474, 159, -1683, -2, 98, -1840, 556, -2586, -1892, -2321, 593, 123, 
714, 147, -345, 146, -2376, -1440, -2300, 675, 397, 585, 63, -244, -192, 14, 1053, 266, 
374, 222, 544, -232, -336, -229, 1355, 1515, 1377, 1376, -770, 1657, 2580, -632, 2348, -1690, 
-2358, 138, 796, -1211, -1421, -629, -1409, -1304, -86, -48, 105, -1095, 363, 1406, 730, -469, 
1995, -393, -960, -1060, 352, -173, 184, 1371, 93, 458, 509, 405, -45, -64, 83, -192, 
119, -233, -428, 217, 611, 1101, -716, -95, -29, -801, 237, 6, -1345, -1044, -788, -841, 
-1170, -555, -1412, -1147, -1602, 377, 424, -20, 188, 74, 342, 382, 352, -121, 123, 497, 
197, 616, 1118, -74, 213, 713, 879, 142, -612, -139, 296, -561, -647, -980, 55, -438, 
588, -293, 449, 331, -764, -1, 48, 281, -77, 5, -1189, -556, -240, -2001, -1441, -492, 
-517, -988, -983, -1145, -459, -294, 10, 273, -1480, -343, 1439, 791, 773, 433, 607, 212, 
771, 1787, -217, -528, 238, -691, 145, 24, -447, -571, -1373, -958, -1285, 1379, 597, 695, 
213, -215, 465, -134, -443, -1113, -273, -1235, -378, 180, -148, -453, -168, -318, -858, -289, 
160, 1001, -245, -131, -116, -317, 209, 477, 0, 0, -1, -28, -28, -28, -29, -29, 
-29, 0, 0, -1, -29, -29, -29, -31, -31, -31, 0, 0, 0, -29, -29, -29, 
-31, -31, -30, -965, 1399, 997, -1881, -592, 459, 2212, -1892, -28, -1583, 999, 1151, 653, 
-436, 954, 1013, -892, 886, -1326, 615, -495, -1432, 725, -773, -424, 1311, -1903, -2, -3, 
-7, -4, -3, -7, -1, 0, -1, -3, -3, -8, -4, -3, -8, -1, 0, -1, 
-3, -3, -6, -4, -3, -6, 0, 0, 0, -846, 117, -88, -1286, 9, -281, -1975, 
585, 212, -759, 556, -74, -1153, 330, -383, -2464, 74, -813, 715, 592, -114, 620, 459, 
-312, -18, 691, -263, -656, -488, -227, -421, -294, -20, -152, -173, 295, -381, -157, -268, 
-270, -83, -156, -196, -252, -149, -393, -84, -4, -121, 108, 88, -223, -174, -120, -182, 
-957, 380, -780, 479, 187, 357, 419, 117, 562, -709, 760, -548, 255, -178, 404, -125, 
-359, -777, -1372, 389, -1461, 87, -18, 515, 499, 599, 0, 0, 0, 0, 0, 0, 
0, 0, 0, 0, 0, 0, 0, 0, 0, 0, 0, 0, 0, 0, 0, 0, 
0, 0, 0, 0, 0, 1077, -454, -100, 837, -430, 544, 1085, -587, 174, 1204, -1066, 
-256, 527, -477, 360, 593, -1151, -83, 1096, -1018, -456, 381, 33, 523, 802, -441, -432};


const int conv1_b[32] = {
2240485, 45711460, 5100321, 44508440, 110363, -1503, 2806795, -59662, 
-1434589, 37343604, 283180, 1343065, 43436916, 4898484, 20193380, 25077534, 
23031, 5485065, -2368959, 803566, 28393282, 34405056, 43700652, 35451548, 
-714628, 27338200, -20788, 6016666, 14933669, -1192203, -781, -24610264};


const short conv2_w[9216] = {
5, -121, 1232, 105, -142, 1052, 1178, 862, 1838, -224, -358, 149, -199, -174, 1, -5, 
-169, 605, -164, 67, 207, -110, -27, 163, -147, 63, 103, -185, -84, 393, 309, 235, 
757, -366, -199, -3, 78, -242, -71, 199, -225, 89, 1122, 303, -36, 0, 0, 0, 
0, 0, 0, 0, 0, 0, -362, 183, -339, 1, 374, 26, -339, -85, -812, 226, 
-33, 94, 193, -21, -10, 312, 43, 18, -318, 108, 33, -21, 476, 324, -437, 77, 
49, 498, -100, 49, -251, -495, -108, 112, -171, -56, -894, -736, -379, 563, -48, -165, 
444, -128, -300, 1734, 743, 42, 1570, 681, 70, 1628, 575, -9, 426, 89, -64, -119, 
-403, -607, 596, 233, 99, -172, 157, 318, -89, 80, 196, -279, 15, 106, 49, 88, 
-345, 184, 165, -104, -58, -67, -457, 509, 289, 253, -263, 88, -13, -352, -182, -275, 
-344, 469, 1648, 49, 463, 257, -27, -114, -115, 1266, 1024, 1423, -676, -493, -370, -130, 
92, -31, 82, 104, 3, -60, -71, 69, 146, -49, -134, 323, 150, 78, 411, 28, 
37, 527, 99, 65, 466, 137, 10, -104, -214, -238, 129, -55, -25, 17, -101, -45, 
-102, -237, 0, 252, 13, 276, -276, 107, -71, -412, 2, -131, -337, 61, 213, 165, 
104, 214, 23, 59, 74, -75, -101, 132, 0, 0, 0, 0, 0, 0, 0, 0, 
0, 156, 274, -324, 5, 535, 7, -29, 66, -307, 0, 0, 0, 0, 0, 0, 
0, 0, 0, 447, -208, -359, 325, -223, -436, 781, 167, -289, 545, 61, -111, -372, 
-698, -565, 147, -94, -162, -688, -449, -340, -130, 63, -10, -253, -88, -134, 0, 0, 
0, 0, 0, 0, 0, 0, 0, -166, -788, -998, -312, -757, -1103, 38, -401, -739, 
67, 34, 413, -139, -152, 147, 496, 399, 766, -606, -196, -591, -79, 822, 261, 50, 
266, 298, -71, -42, 102, 43, 18, 8, -14, -31, -13, -307, -155, -410, 432, 571, 
368, -336, 57, -656, -1073, -799, -1170, -1206, -909, -1092, -1546, -929, -1530, 0, 0, 0, 
0, 0, 0, 0, 0, 0, 249, -464, 85, -417, -836, -393, -460, -975, -917, -433, 
-438, -384, -408, -428, -368, -418, -486, -388, 143, 215, 127, 312, 332, 293, 290, 356, 
323, -583, -793, -216, -379, -288, -497, -339, -416, -739, -2474, -2094, -1491, -1568, -1676, -1489, 
-2448, -1680, -1152, 197, -342, 34, 187, -327, 30, 198, -316, 65, -187, -125, 144, -149, 
604, -63, 203, 300, -29, 158, -146, -95, 245, -60, -46, 157, 70, 25, -476, 110, 
90, -77, 340, 232, -97, 287, -133, -284, -549, -724, -379, 50, -169, -421, -306, -802, 
-1624, -2170, -3115, -1160, -1633, -1565, -1415, -1271, -1851, -111, -26, -258, -630, -438, -662, -417, 
-304, -388, -7, -643, -234, -97, -525, -3, -199, -127, -304, 160, 37, 79, 69, -150, 
-140, 177, 102, 103, 38, -69, -626, 24, 213, -10, -69, -198, -340, -1051, -241, -867, 
-215, 509, -13, -415, 166, -190, 59, 674, 55, 316, 718, 244, 102, 257, 442, -154, 
127, -84, 398, 470, -52, -22, 305, 142, 0, 0, 0, 0, 0, 0, 0, 0, 
0, -22, -371, -32, -117, -107, 210, -963, -76, -50, 0, 0, 0, 0, 0, 0, 
0, 0, 0, -491, -287, -379, -419, -233, -271, -470, -431, -296, -660, -27, -357, -191, 
608, 287, -362, 322, 24, 64, 25, 8, 21, -42, -11, -11, -18, -2, 0, 0, 
0, 0, 0, 0, 0, 0, 0, 17, 20, 19, 19, 22, 19, 2, 19, 20, 
-52, 9, 801, 203, -38, 835, 441, 299, 951, 191, 240, 318, 213, 430, 176, 487, 
95, -84, 156, -201, -176, -129, -484, -374, -32, -254, -393, 452, 492, 532, 382, 395, 
368, 53, 266, 152, -160, 9, -192, 61, 205, -39, -84, -140, -144, 0, 0, 0, 
0, 0, 0, 0, 0, 0, 778, 790, 841, 345, 497, 1144, 441, 797, 944, 223, 
-92, -323, 497, 253, -45, 953, 641, 336, 1411, 1073, 1723, 834, 545, 858, 1558, 1067, 
1299, -602, -371, -573, -558, -179, -660, -648, -281, -883, -228, -87, -127, 8, -120, 117, 
-192, -200, -333, 870, 310, -80, 811, 296, -69, 912, 250, -96, -1039, -474, 18, -910, 
-163, 175, -844, -324, -224, -350, -901, -1318, 540, 13, -390, 1228, 626, 220, -928, -398, 
58, -639, 12, 198, -558, 132, 376, 498, 206, 310, 430, 132, 30, 517, 23, -64, 
-10, -105, -185, 153, 190, 16, -71, -206, -130, 644, 431, 828, 263, 337, 547, 121, 
229, 211, -1102, -925, -696, -498, -357, -289, -849, -959, -534, 652, 727, 321, -18, 79, 
-117, -340, -360, -513, 331, 214, 241, -145, -196, -3, 93, -35, 56, 31, 21, -108, 
124, 161, -97, 90, -94, -223, 957, 159, 256, 592, -109, 173, 815, -86, 35, -613, 
-486, -451, 141, 28, -106, 88, 245, -199, 0, 0, 0, 0, 0, 0, 0, 0, 
0, -91, 49, 266, -183, 102, 182, 75, 335, 128, 0, 0, 0, 0, 0, 0, 
0, 0, 0, 479, -18, -64, 124, -295, -297, 717, 378, 101, -83, -405, -225, -300, 
-728, -462, -60, -417, -309, -322, -226, -45, -100, -40, 33, 52, 152, 81, 0, 0, 
0, 0, 0, 0, 0, 0, 0, -7, -217, -234, 50, 163, -117, 199, 9, 11, 
14, 77, 8, -7, 26, 12, 85, 187, 121, -89, 23, -237, 92, 196, -162, 17, 
-14, -256, 202, 233, 188, 69, 129, 129, 101, 159, 162, -222, -121, -231, 66, 51, 
9, -9, 117, -182, -66, -324, -74, -263, -361, -156, -172, -229, -128, 0, 0, 0, 
0, 0, 0, 0, 0, 0, 415, 251, 10, 464, 357, 130, 393, 267, 14, -64, 
30, -52, -170, -41, -93, -205, -88, -144, -530, -572, -827, -369, -384, -647, -410, -413, 
-653, -469, -327, -182, -247, -79, 167, -316, -155, -18, -93, 9, 63, -88, -133, -240, 
220, -6, 371, 30, -54, -47, 40, -52, -45, 52, -65, -42, -19, 174, -11, -40, 
79, -82, -85, -64, -213, 255, 137, 236, 171, -42, 135, -66, -253, 0, -67, -37, 
-314, 130, 184, -72, -185, -190, -407, -137, -102, -81, 14, 121, -76, -30, 26, -80, 
-10, -36, 61, -20, 77, -70, -52, -57, -20, 113, 38, -145, -10, -133, -221, -131, 
-220, -291, -277, -81, -270, -293, -83, -169, -54, -108, -212, -205, -121, -207, -35, 68, 
8, -82, -12, -61, 15, 22, -99, 173, 232, 112, 263, 279, 184, -101, -20, -161, 
78, 169, 110, 154, 130, 61, 50, 278, -12, 96, 421, 121, 73, 301, 191, -318, 
-75, -371, -237, 159, -129, -338, -108, -254, 0, 0, 0, 0, 0, 0, 0, 0, 
0, -109, -386, -238, -196, -33, -3, -256, -283, -186, 0, 0, 0, 0, 0, 0, 
0, 0, 0, 186, 144, -3, -104, -139, -164, -112, -150, -213, -19, 63, -116, 68, 
134, -59, 44, 111, -64, 56, 46, 29, -20, 7, 64, 11, 37, 9, 0, 0, 
0, 0, 0, 0, 0, 0, 0, -378, -201, -235, -220, -88, -223, -267, -106, -48, 
-18, -17, 173, 15, 125, 295, 254, 306, 546, -331, -70, -346, 30, 20, -73, 435, 
408, 175, 5, 61, 47, -61, 8, -1, -5, 78, 73, -409, 37, -234, -55, 88, 
-218, -101, -155, -344, -476, -18, 118, -319, -266, -45, 25, 69, 567, 0, 0, 0, 
0, 0, 0, 0, 0, 0, 48, 93, 245, -273, -156, -156, -24, 154, 354, -226, 
-68, 19, -152, -32, 13, -80, 40, 92, -457, -246, -234, -51, 37, 64, 34, 72, 
150, -265, 42, -111, -414, 38, -209, -206, 133, 196, -1629, -353, 130, -746, -353, 164, 
-468, 194, 596, -562, -140, 30, -544, -127, 0, -492, -65, -1, 357, 347, -198, 206, 
212, -318, 277, 249, -158, 15, -131, 15, 78, -164, 11, 93, -168, 71, 233, 430, 
269, 211, 306, 75, 101, 204, 140, 540, 63, -350, 50, 166, -58, 41, 51, 71, 
-1030, -920, -705, -407, -266, 93, -209, -73, 370, -540, -356, -415, -250, -27, -170, 46, 
73, 77, -232, -208, 130, -33, 20, 93, 193, 210, 461, -175, 12, 40, -245, -127, 
-116, -96, 14, -16, 123, 132, -147, 66, 156, -90, 48, 94, -132, 99, 239, 220, 
250, 64, 128, 412, 187, 477, 480, 289, -67, 235, -68, -357, 201, -42, -297, -183, 
65, -127, -78, -90, -235, -33, -64, -388, 0, 0, 0, 0, 0, 0, 0, 0, 
0, 833, 596, 415, -35, 286, 307, 111, 323, 173, 0, 0, 0, 0, 0, 0, 
0, 0, 0, -572, -93, 0, -265, 164, 108, -234, -31, 23, 70, 52, -1, 39, 
113, -4, 137, 90, 71, 608, 531, 409, 473, 406, 261, 372, 295, 193, 0, 0, 
0, 0, 0, 0, 0, 0, 0, -205, -64, -325, -187, 23, -275, -96, 31, -320, 
-50, -8, -235, 1, 140, 250, -263, -219, -206, -220, -133, 741, -225, -197, 433, -83, 
52, 773, -109, 74, -463, -45, 279, -161, -421, 4, -388, -383, -35, -18, -52, -8, 
-54, 161, -263, -330, 221, 176, 43, 15, -160, -85, 64, 136, -62, 0, 0, 0, 
0, 0, 0, 0, 0, 0, -192, 112, -305, -77, 356, 310, 68, 308, 445, 27, 
350, -91, -103, 182, -263, 56, 410, -119, -961, -246, -92, 120, 515, 317, 318, 784, 
844, 64, 189, 441, -57, 166, 606, -416, -157, 243, 9, -60, -154, 86, 145, -12, 
88, 77, 90, -118, 154, 104, -221, 211, 121, -282, 117, 110, 691, 235, -400, 636, 
47, -627, 207, -179, -601, 1377, 444, 1316, 645, -224, 644, 1410, 234, 1284, 263, 204, 
106, -58, -42, 114, 274, 198, 133, -645, -272, 233, -367, -125, 152, -212, 249, 245, 
92, -24, 132, 102, -171, 76, 91, -27, 150, -106, -161, -123, 64, 25, -42, 117, 
-36, 141, 46, 256, 57, -141, 87, -72, -340, -327, -461, -656, -398, -1246, -493, 229, 
-346, -1260, -68, -436, 536, -268, -1356, 822, 34, -1031, 1540, 710, -420, -203, 80, 193, 
-228, -44, 216, -153, -186, 131, -351, -482, 86, -162, -244, 424, -72, -300, 395, -76, 
685, 410, -319, 477, 72, -372, 251, -436, 0, 0, 0, 0, 0, 0, 0, 0, 
0, 35, -92, 430, 238, -119, 30, 91, 59, 449, 0, 0, 0, 0, 0, 0, 
0, 0, 0, 49, -164, -185, 231, 199, 210, 153, -1, 123, 25, 86, -211, -113, 
46, 90, -281, -232, -89, -72, 42, 94, -213, 128, 140, -171, 18, 255, 0, 0, 
0, 0, 0, 0, 0, 0, 0, -126, -23, 59, -63, 38, 139, 21, 184, 219, 
19, -29, 628, -55, -90, 605, -145, -166, 580, -309, 15, 506, -237, 69, 425, -241, 
44, 132, -4, 49, 108, -30, 13, 109, 0, 27, 109, -240, 84, 265, 14, 157, 
395, -33, 206, 472, -589, -53, 388, -474, -191, 344, -739, -46, 812, 0, 0, 0, 
0, 0, 0, 0, 0, 0, -88, -160, -482, -155, -211, -453, -154, -105, -152, -202, 
-48, 58, -167, -45, 43, -187, -75, 3, -228, -45, 79, -157, -13, 90, -188, -10, 
179, -10, 43, 88, -308, -128, 101, -187, -185, 315, -515, -169, -233, 35, -194, 35, 
-407, -174, 245, -4, -107, -19, 3, -112, -21, 0, -111, -20, -301, 88, 180, -276, 
97, 290, -187, 136, 319, 46, -186, -46, 119, -189, -47, 58, -194, -14, -160, 147, 
-24, -89, 149, -46, 14, 172, 95, -212, -82, -247, -183, 9, -30, -123, -10, 48, 
-450, -204, 806, -110, 29, 424, -395, -334, 533, -251, 21, 141, -46, 248, 214, 42, 
48, 37, -165, 193, -170, -125, 89, -319, -186, 138, 27, -6, 134, 102, -99, 46, 
50, -143, 53, 40, -310, -32, 241, 1, 254, 458, 176, 345, 426, -262, 165, 243, 
-17, 113, -43, -60, 132, -45, -22, 34, -53, -3, 12, -79, 89, 92, -26, -110, 
256, 257, 47, 280, 192, 88, 335, 76, 0, 0, 0, 0, 0, 0, 0, 0, 
0, -229, -298, -77, -286, -118, -102, -399, 89, -3, 0, 0, 0, 0, 0, 0, 
0, 0, 0, 114, 15, 214, 62, -168, 202, 73, -204, 167, -458, -82, 82, -427, 
-24, 145, -314, 2, 157, -31, -51, -123, 12, -23, -160, -37, -41, -126, 0, 0, 
0, 0, 0, 0, 0, 0, 0, -41, -12, -150, -4, 2, -167, -22, 17, -187, 
54, 116, -42, 60, 339, 287, -184, 148, 131, -465, -378, -291, -316, -257, -395, -601, 
-404, -447, 430, 412, 364, 553, 549, 475, 460, 463, 320, -228, 65, -39, 83, -16, 
89, -317, -53, -16, -842, -239, -185, -181, -170, -37, -537, -37, -437, 0, 0, 0, 
0, 0, 0, 0, 0, 0, -391, -514, -531, -311, -413, -444, -457, -450, -577, -541, 
-424, -299, -513, -474, -317, -488, -426, -366, -886, -663, -847, -713, -619, -815, -936, -687, 
-873, 51, 145, 157, 192, 403, 503, -66, 73, 93, -371, -31, -138, 110, -18, -50, 
-3, 90, 161, -766, -211, -94, -713, -178, -115, -709, -131, -72, 83, 107, -85, -16, 
104, -110, 144, 86, -167, -459, 50, 121, -107, 192, 238, -220, 85, 149, -93, 285, 
189, 273, 413, 223, 155, 220, 79, 44, -373, -462, -254, -103, -303, -335, -218, -287, 
-500, 21, -441, -95, 61, -250, -337, -177, -62, -652, -412, -559, -189, 25, -216, -220, 
-315, -366, 129, 304, 300, 214, 579, 382, 409, 417, 341, -159, -257, -191, 287, 80, 
56, 167, 81, 121, 394, 219, 311, 165, 123, 310, 279, 289, 322, -446, 8, -380, 
-131, -130, -248, -319, -219, -537, 155, 183, -93, 199, 321, 15, 26, 103, -298, -145, 
143, 169, 10, 260, 448, 16, 311, 352, 0, 0, 0, 0, 0, 0, 0, 0, 
0, 310, -61, 58, -301, -34, -260, -500, -159, -358, 0, 0, 0, 0, 0, 0, 
0, 0, 0, -617, -109, -270, -562, -56, -127, -741, -356, -352, -51, -56, -100, -61, 
106, 29, -70, -12, -99, 577, 243, 407, 310, 0, 106, 242, -74, -23, 0, 0, 
0, 0, 0, 0, 0, 0, 0, -278, -163, -239, -265, -263, -275, -366, -360, -230, 
-222, -269, -576, 9, 316, -68, -263, -286, -476, 602, 364, 680, 41, -383, -305, 458, 
181, 187, -140, -50, -69, -190, 0, -46, -278, -124, -137, 192, -16, 339, -176, -140, 
151, -182, -312, -37, 602, 507, 359, -127, -125, -312, 48, -109, -485, 0, 0, 0, 
0, 0, 0, 0, 0, 0, 233, 374, 283, 51, 201, 109, -362, -240, -499, 147, 
122, 131, 94, 108, 123, 67, 2, 49, 159, 192, -29, -212, -380, -257, 0, -167, 
-367, 339, -20, -114, 114, 147, -32, 218, 297, -117, 40, 3, 143, 238, 19, 279, 
-321, -83, 86, 120, 7, 240, 9, 1, 182, -47, 42, 158, 150, 182, 298, -294, 
-118, 194, 611, 467, 797, -387, -360, -328, -101, 53, 123, -245, -128, -124, -194, 29, 
80, -186, 49, -18, -186, 36, -160, 66, -122, 374, 21, -205, -221, 270, 226, 220, 
252, 312, 907, 177, -228, 539, 258, 159, 492, -656, -427, -36, -91, -35, 43, 343, 
312, 591, -197, -77, -21, 141, 309, 449, 180, 17, 300, 43, 60, 446, 42, -41, 
221, -123, -194, 44, 318, 132, 658, -266, -343, 71, 185, 84, 360, 243, 249, 129, 
14, 79, 35, 259, 3, -32, 123, 420, -316, -18, 113, -451, -48, -188, -360, -125, 
13, -6, -56, -31, -4, -72, 114, 192, 0, 0, 0, 0, 0, 0, 0, 0, 
0, 554, 272, 793, -183, -393, 11, 208, 369, 315, 0, 0, 0, 0, 0, 0, 
0, 0, 0, -195, -363, -190, 128, 384, 327, 198, 132, 101, -55, -5, -217, -72, 
167, 2, -56, -153, -283, 33, 269, 144, 105, 79, 33, 124, 178, 139, 0, 0, 
0, 0, 0, 0, 0, 0, 0, 405, 59, 206, 292, -252, 127, 509, 538, 504, 
45, -16, 285, -73, -107, 228, -64, -60, 363, -57, -32, 41, 121, -106, -15, 70, 
-136, -2, 149, 46, 23, 205, 81, 80, 425, 229, 231, 19, -91, 88, 19, -39, 
-78, -495, -377, -219, -366, -79, -23, -247, -133, -29, -297, 201, 356, 0, 0, 0, 
0, 0, 0, 0, 0, 0, -341, -401, -200, -378, -448, -270, -145, -205, -67, -139, 
-166, -116, -106, -195, -171, -26, -120, -129, -420, -375, -174, -212, -310, -196, 18, -88, 
75, 30, -154, -39, 90, -77, -107, 396, 81, 243, -249, -61, -105, -32, 48, -224, 
-348, 8, -8, -489, -63, -14, -473, -83, -38, -466, -81, -40, -27, 175, -260, -223, 
25, -207, -44, 96, -86, -528, -236, 156, -462, -119, 231, -634, -84, 397, -204, -213, 
-280, 155, -36, -66, 201, -143, -132, 290, 101, -7, -116, -234, -328, 4, -103, -55, 
-315, -272, -236, 161, 227, 274, 46, -102, 46, -424, -290, -351, -268, -162, -282, -193, 
-245, -254, -172, -2, -322, 37, 266, 39, -347, 146, -16, 185, 80, -98, 162, 99, 
42, 274, 142, 110, 138, 222, 111, 113, 254, 173, 23, 129, 113, -69, -4, -200, 
116, -68, -18, -177, -54, 17, 112, -89, -96, 124, -146, 4, 577, 282, 381, -134, 
-156, -255, 149, 101, -96, 204, 60, -62, 0, 0, 0, 0, 0, 0, 0, 0, 
0, 239, 3, 248, 357, 48, 267, 141, -160, 241, 0, 0, 0, 0, 0, 0, 
0, 0, 0, -633, -309, -189, -563, -396, -216, -704, -580, -322, 120, 179, 170, 75, 
120, 148, -48, -52, 128, 271, 165, 122, 206, -16, -33, 83, -77, -84, 0, 0, 
0, 0, 0, 0, 0, 0, 0, -212, 41, -73, -181, 64, -22, -337, 0, -114, 
-6, -12, 16, 17, 11, 24, -49, -77, -80, 60, 81, 28, 111, 118, 44, 80, 
103, 25, -38, -4, -29, -40, -4, -12, -76, -38, -44, -25, 16, 20, -48, -35, 
-38, -26, -82, -151, 90, 89, 61, 30, -6, -63, -99, -223, -359, 0, 0, 0, 
0, 0, 0, 0, 0, 0, 138, 87, -44, -90, -91, -143, -255, -260, -276, 45, 
27, 33, 12, 3, 25, 1, -21, -6, 90, 93, 56, 68, 88, 61, 46, 53, 
19, -164, -34, -98, -120, -3, -52, -90, -59, -140, 672, 238, 623, 431, -99, 169, 
256, -209, -53, 12, 26, -1, 3, 21, 0, 2, 19, 4, -46, -44, -58, 88, 
81, 71, 81, 54, -7, 52, 26, -25, -37, -51, -83, -40, -58, -100, 54, 36, 
30, -9, 16, 24, -3, 21, -51, -284, -203, -157, -34, -43, -32, 25, -10, -47, 
253, 102, 307, -5, 4, -87, -94, -15, -194, -45, -57, -38, -18, -31, 4, 41, 
83, 87, -11, -153, -11, 21, -131, 7, 64, -112, 38, 12, -18, 14, -34, -75, 
-43, -51, -93, -73, 142, 118, 16, 146, 121, 21, 50, 38, -89, 72, 13, 37, 
134, 125, 116, 195, 158, 106, 20, -12, -38, 45, 17, -22, -35, -61, -122, 116, 
42, 27, 46, -15, -49, 0, -34, -82, 0, 0, 0, 0, 0, 0, 0, 0, 
0, -9, -55, -183, 15, -34, -163, -39, -10, -54, 0, 0, 0, 0, 0, 0, 
0, 0, 0, -39, 17, -11, -26, 95, 48, 1, 132, 44, -15, -24, -63, 60, 
64, 35, 70, 101, 47, 33, 42, 53, 34, 56, 54, 0, 63, 29, 0, 0, 
0, 0, 0, 0, 0, 0, 0, 23, 6, 10, -15, -41, -25, 10, -54, -24, 
-44, -198, -1338, 8, 286, -1193, -158, -85, -1356, -259, -462, -305, -476, -1159, -468, -118, 
-686, 111, 723, 581, 695, 632, 687, 467, 886, 900, 841, -266, -225, 283, 768, 103, 
-75, 419, -137, 63, -84, 10, -60, -214, -476, -283, -184, 9, -292, 0, 0, 0, 
0, 0, 0, 0, 0, 0, 236, 567, 461, 384, 170, 498, 582, 415, 344, -491, 
-352, -245, -438, -457, -339, -446, -576, -538, -643, -671, -1260, -142, -346, -377, 257, -265, 
-472, 489, 39, 425, -74, 96, -128, 682, 541, 151, 162, -107, -239, 83, -83, -73, 
-56, -205, -35, -661, -595, 114, -524, -683, 46, -397, -458, 96, -75, 85, 209, -242, 
50, 166, -490, -245, -310, -172, 19, 154, -68, 192, 281, -267, -164, 3, -396, -158, 
-128, -190, -324, -49, -702, -88, -363, 40, -166, 95, -112, -845, 96, -32, -65, -13, 
-161, -249, -469, -663, -1573, -521, -433, -561, -501, -939, -954, -1446, -208, -505, -554, -243, 
-424, -359, 136, -178, -553, 116, 423, -363, 225, -74, -276, 333, -6, 558, 260, -400, 
-87, 951, 377, 456, -71, -67, 274, 90, 262, 277, -225, -262, -181, -300, -117, 155, 
-451, -332, 2, -346, -555, -166, 165, 429, 116, 269, 311, 343, 59, 518, 794, -173, 
28, -235, 216, 310, 55, -79, -236, 118, 0, 0, 0, 0, 0, 0, 0, 0, 
0, 124, 15, 303, -371, -447, 337, 80, -417, 207, 0, 0, 0, 0, 0, 0, 
0, 0, 0, -813, -495, -282, -364, -76, -118, -810, -990, -644, 15, 453, 249, -155, 
393, -181, -191, 350, -90, 469, 222, 508, -252, -206, 242, -70, -449, -247, 0, 0, 
0, 0, 0, 0, 0, 0, 0, 325, 326, 457, -443, -304, 171, -296, -377, 118, 
-22, -86, 52, -84, -124, -7, -26, -38, 51, -1152, -651, -901, -717, -250, -590, -1120, 
-584, -889, 76, 26, 98, 125, 58, 112, 119, 41, 68, -234, 82, -149, 344, 654, 
451, -394, 121, -130, -338, -392, -282, -55, -58, 32, -636, -676, -693, 0, 0, 0, 
0, 0, 0, 0, 0, 0, -439, -459, -429, -375, -324, -325, -633, -416, -509, -95, 
-109, -80, -136, -128, -68, -126, -113, -43, -162, -191, -234, -121, -136, -178, -130, -124, 
-147, -725, -795, -621, -577, -475, -422, -567, -520, -547, -637, -197, -112, -304, -46, -170, 
-405, -310, -380, -21, -139, -17, -17, -105, -18, -9, -112, -12, 330, 748, 391, 176, 
524, 229, 64, 439, 132, 85, 126, -185, 125, 135, -157, -73, 32, -156, 7, 190, 
45, 287, 432, 286, 30, 112, -76, -97, 68, -271, -332, 7, -244, -87, 207, -97, 
-516, -116, -892, -350, 19, -327, -125, 47, -495, 76, 146, -23, -171, -142, -310, -71, 
-74, -191, -341, 98, -412, -482, -32, -470, -425, -22, -586, -89, -33, -27, -60, -10, 
13, -100, -79, -79, 91, 349, 113, 410, 648, 396, 75, 398, 155, -797, -209, -412, 
-374, 116, -98, -446, -2, -288, 40, 471, -48, 280, 647, 74, 61, 381, -103, -96, 
323, -10, 165, 584, 300, -168, 249, 7, 0, 0, 0, 0, 0, 0, 0, 0, 
0, -93, -150, -165, 115, 134, 76, -221, -52, -261, 0, 0, 0, 0, 0, 0, 
0, 0, 0, 163, 253, 212, 79, 154, 154, -113, -65, -110, -283, -18, -158, -24, 
237, 84, -162, 102, -65, 67, 55, 43, 40, 5, 26, 57, 20, 1, 0, 0, 
0, 0, 0, 0, 0, 0, 0, -72, 19, -25, -72, -2, -43, -74, -9, -20, 
248, 534, 451, -301, -293, -113, -333, -227, -387, -432, -886, -457, 472, 529, 372, 155, 
256, 306, 54, 105, -11, 18, -9, -45, 257, 227, 229, 25, -434, -513, -495, -41, 
81, 84, 570, 421, 315, 64, 581, 310, 846, -77, 278, 292, 281, 0, 0, 0, 
0, 0, 0, 0, 0, 0, 240, 386, 315, 86, 87, -305, 218, 479, 30, 3, 
-125, -124, -53, -66, -137, -100, -64, -121, 660, 346, 752, -8, -118, -138, -461, -283, 
-398, -440, -564, -577, -115, 47, 213, 287, 339, 152, 284, 106, -146, 119, 206, 353, 
-57, -271, -161, 216, 17, -12, 147, 88, 43, -40, 31, 49, -719, -442, -900, 14, 
277, 386, 92, 332, 14, 278, 153, 98, -242, -333, -129, -75, 183, 237, -159, -120, 
5, -34, 3, -171, 292, 238, 25, -899, -962, -662, 378, 592, 309, 39, 0, -60, 
-92, -163, 221, 240, 114, -37, -101, -94, 32, -727, -797, -850, -132, -241, 79, -66, 
-118, -100, 215, 503, 735, -77, -147, -276, -18, 66, -1, 295, 161, 40, -65, -73, 
-49, 37, 17, 29, -121, -90, -220, -39, 5, -45, -122, -46, -168, -58, -377, -46, 
-42, -143, -92, 261, 553, 443, -499, -343, -453, -46, -87, -70, 416, 243, 348, 226, 
247, 340, 17, 67, 27, 262, 306, 372, 0, 0, 0, 0, 0, 0, 0, 0, 
0, -434, -439, -197, 1, -67, -314, 58, 96, 173, 0, 0, 0, 0, 0, 0, 
0, 0, 0, 564, 426, 262, -276, -502, -239, 61, 299, 156, -151, 11, -205, 169, 
59, 124, 281, 190, 217, -594, -584, -478, 35, -29, 50, 123, 170, -48, 0, 0, 
0, 0, 0, 0, 0, 0, 0, -357, -312, -293, 157, -267, 100, -100, -226, -161, 
0, 3, -66, 91, 89, 26, 23, 25, -36, 10, 6, -33, 80, 72, 27, 91, 
70, 41, -40, 27, -30, -136, -65, -90, -114, -30, -25, -90, -224, -395, 29, 25, 
-18, 89, 117, -82, -150, -25, -55, -381, -234, -223, -213, -28, 91, 0, 0, 0, 
0, 0, 0, 0, 0, 0, 681, 575, 541, 134, 87, 98, 115, 140, 220, -1, 
73, 58, -34, 62, 60, -14, 72, 55, 108, 55, -72, 80, 50, -76, -80, -144, 
-264, -309, -227, -312, -170, 11, -10, -314, -179, -68, -226, -110, -314, -196, -12, -184, 
-207, -54, -114, -144, 16, 0, -145, 16, 0, -145, 15, 0, -248, -133, -199, -129, 
-30, 3, -78, 9, -66, 144, -15, -25, -22, -190, -101, -52, -220, -102, -82, -28, 
-122, -161, -102, -121, -264, -124, -177, -366, -277, -241, -31, -22, -13, 54, 50, 44, 
-76, -138, 430, -133, -194, -22, -48, -7, 287, -141, -127, -128, -39, -41, -11, -26, 
-15, -10, 239, 309, 793, 143, 197, 582, 73, 116, 415, 87, 103, 122, -85, -55, 
-10, -89, -71, -25, 1, 60, 66, 55, 156, 211, 131, 253, 299, 0, 0, 0, 
0, 0, 0, 0, 0, 0, 154, 137, -147, 194, 133, -159, 100, 64, -143, 7, 
92, 246, -104, 1, 49, -240, -186, -207, 0, 0, 0, 0, 0, 0, 0, 0, 
0, -382, -144, -86, -336, -85, -262, -317, -260, -318, 0, 0, 0, 0, 0, 0, 
0, 0, 0, -44, 145, 47, -123, 45, -53, -105, 69, -51, -4, -1, 0, -2, 
0, 0, -5, -2, -3, -38, -7, -2, 2, 2, 0, 1, 0, -7, 0, 0, 
0, 0, 0, 0, 0, 0, 0, -160, 57, 98, -87, 121, 195, -78, 216, 246, 
-71, -39, 50, 20, 72, 101, -509, -457, -426, 42, -46, 214, -354, -592, -185, -267, 
-313, -203, 332, 251, 123, 348, 333, 229, 288, 256, 270, -165, -536, -1261, -194, -430, 
-712, 324, -147, -263, 533, 118, -234, 437, -12, 61, 538, -14, 386, 0, 0, 0, 
0, 0, 0, 0, 0, 0, -226, 123, 250, -112, 123, 263, -48, 49, 391, 4, 
59, 44, -76, -44, 17, -94, -61, -14, 243, 165, 128, 101, -13, 75, 322, 170, 
153, 0, -285, -1114, -17, -157, -399, 85, -156, 37, 886, 269, 526, 177, 29, 393, 
171, 254, 557, -544, -140, -14, -496, -151, -28, -475, -122, -18, 539, 233, -176, 272, 
220, 273, 264, 346, 527, -167, -20, 20, -45, 4, -3, 2, -136, -131, 5, 41, 
-42, -87, -45, -19, -314, -112, -21, 415, -23, -531, -40, -449, -396, 201, 135, 81, 
624, 68, 1765, 20, -576, -233, 154, -257, 413, 558, 521, 318, 359, 217, 112, -22, 
-91, -76, 327, 598, 1359, 53, 177, 457, 131, 137, 340, -263, -215, -89, 113, 97, 
92, 186, 125, 99, 27, -134, -115, 118, 12, 42, 19, 65, 91, -121, -20, -257, 
-336, -86, -243, -110, 55, -98, 442, 302, 75, 352, 455, 203, 173, 497, 323, -71, 
54, 564, -60, -55, 58, -106, 104, -56, 0, 0, 0, 0, 0, 0, 0, 0, 
0, 531, 200, 927, 179, -471, -229, 179, -211, -40, 0, 0, 0, 0, 0, 0, 
0, 0, 0, -30, 240, 262, -85, 177, 204, -356, -137, -71, -31, 82, 68, -147, 
-29, -60, -275, -148, -137, 212, -158, -78, -94, -296, -157, -132, -333, -108, 0, 0, 
0, 0, 0, 0, 0, 0, 0, -341, -415, -441, -329, -249, -233, -267, -196, -199, 
-33, -3, -135, 45, 102, -51, 99, 110, -97, 355, 60, 735, 8, -701, 63, 724, 
223, 125, 328, 322, 215, 335, 313, 164, 332, 257, 186, 411, 335, 663, -207, -6, 
498, -123, 112, 387, 316, 304, 815, 256, 122, 179, 1554, 1034, 1502, 0, 0, 0, 
0, 0, 0, 0, 0, 0, -203, -75, -250, 43, 110, 130, 212, 329, 800, -124, 
-108, -76, -72, -94, -100, -28, -38, -79, 316, 52, 65, 215, -53, 148, 8, -200, 
-139, 273, 367, 206, 161, 62, 550, 29, 27, 697, -36, -198, 327, -75, -339, 3, 
437, 51, -1598, -285, -109, 11, -289, -121, 8, -352, -119, 28, -373, -218, 263, -499, 
-678, -286, 30, -95, 375, 193, 116, 106, -106, -72, -12, -302, -199, -148, 87, -85, 
-127, 82, -211, -188, 159, -121, 177, -734, -299, 330, -151, -361, -23, 120, 85, 500, 
168, 539, 1657, -14, 170, 895, 962, 899, 1676, -67, -95, -191, 40, -89, -56, -31, 
-44, 36, -219, -618, -195, -319, -319, 72, -219, 20, 1346, 78, -7, 105, -26, -73, 
-40, -111, -18, 28, -240, -188, 250, -238, -226, 189, 281, 350, 579, 34, -196, -15, 
-76, -290, -228, -256, -577, -681, 231, 214, 395, 142, 93, 96, -36, -132, -263, -236, 
-341, -172, -163, -136, -350, -115, -151, -765, 0, 0, 0, 0, 0, 0, 0, 0, 
0, -728, -521, -317, -242, -578, -472, 70, -599, -836, 0, 0, 0, 0, 0, 0, 
0, 0, 0, 26, 50, 148, -4, 25, 126, -146, -108, 12, -244, -135, -186, -105, 
29, -94, -208, -124, -172, -115, -135, 33, -164, -255, -69, 61, -21, -43, 0, 0, 
0, 0, 0, 0, 0, 0, 0, -199, -137, 147, -222, -383, 173, -162, -127, 51, 
-15, 37, -59, -66, -37, -162, -7, -56, -95, 108, 123, -74, 181, 296, -69, -71, 
24, -292, 37, 23, -40, 79, 102, 39, 8, 49, -92, 26, -20, -216, -364, 68, 
-5, -180, 275, -183, 455, -141, -343, -215, -630, -921, -707, -1034, -1855, 0, 0, 0, 
0, 0, 0, 0, 0, 0, -292, -226, -189, 5, -145, 65, -44, -203, -290, 200, 
14, -55, 43, -107, -145, -49, -159, -207, -22, -45, -74, -42, 87, 133, -44, 167, 
205, -269, 79, -252, 30, 33, -5, -223, 38, -680, 1515, 187, -106, -223, -589, -859, 
-417, -1230, -1854, 274, 134, -7, 238, 122, 6, 211, 118, 14, 134, -40, 152, 271, 
178, 415, -155, -272, -434, -86, 177, -87, -161, 153, -148, -39, 214, -154, 172, -142, 
-86, -107, -50, 71, 44, 198, -81, -143, -85, 107, 319, -71, 231, -189, -427, -668, 
517, -69, -384, -266, -682, -1186, -449, -1062, -1950, 475, 237, 193, 145, -144, -59, -196, 
-186, -177, 69, 55, 215, -29, -294, 173, -173, -510, -44, -25, -69, -22, -5, 3, 
47, 11, -13, 54, -67, 70, -148, 216, 309, -20, -142, -4, -432, 85, -288, -222, 
-157, 55, -34, -144, 110, -179, -211, -79, 25, 55, 405, 482, -76, 93, -46, -1, 
-53, -50, -72, 161, 41, -76, 24, 15, 0, 0, 0, 0, 0, 0, 0, 0, 
0, -215, 134, -200, 508, 149, -158, 82, -87, -86, 0, 0, 0, 0, 0, 0, 
0, 0, 0, 374, 88, -264, 133, 11, -323, 68, 88, -288, 223, 110, 18, 297, 
62, -23, 85, -132, -315, -309, -310, -263, -253, -142, -111, -201, -95, -89, 0, 0, 
0, 0, 0, 0, 0, 0, 0, -205, -21, -18, -128, -9, -29, -34, -40, -79, 
-27, 59, 537, 92, -4, 504, -111, -72, 489, 81, 496, 104, 79, 724, 250, -579, 
-10, -250, -346, -221, -193, -358, -290, -224, -326, -268, -222, 196, 51, 176, -8, 16, 
152, 757, 379, 634, -36, -166, -293, -4, -403, -854, -185, -560, -696, 0, 0, 0, 
0, 0, 0, 0, 0, 0, 5, 197, -286, 211, 77, -394, 253, -65, -385, 193, 
174, 150, 194, 168, 138, 212, 195, 186, 32, 59, -163, 173, 272, 7, 301, 257, 
27, -460, -17, -312, -207, 123, -320, -224, -4, -170, 862, -425, 101, 705, -26, 391, 
-35, -430, -309, -110, 320, -30, -102, 313, -30, -86, 299, -42, 25, 105, 36, 157, 
268, 178, -242, -95, -63, 41, 51, -84, 1, 85, -90, 219, 171, 1, 100, -72, 
-212, 14, -132, -269, -207, -31, -4, -297, 134, 19, -75, 247, 94, -154, -22, 32, 
77, -55, 445, 124, -185, 201, 4, -395, 246, 510, 476, 557, 343, 424, 432, 112, 
161, 103, 233, -99, 347, 169, -383, 237, 656, -137, 509, -25, 197, 197, -137, 96, 
150, 82, 113, 144, -360, 59, 49, -252, 155, 151, -393, -49, 32, 319, 159, 80, 
156, 94, -63, -138, -161, -280, -260, -314, -352, -119, -226, -205, -457, -351, -291, 191, 
25, 194, 75, 18, 278, -27, -38, 196, 0, 0, 0, 0, 0, 0, 0, 0, 
0, -261, 256, -335, 112, 538, -90, 858, 324, -123, 0, 0, 0, 0, 0, 0, 
0, 0, 0, -152, 301, 17, -143, 311, 18, -196, 273, -30, -91, 35, 92, -46, 
18, 117, -45, 60, 153, -164, 93, 146, -139, 56, 31, -94, -38, -1, 0, 0, 
0, 0, 0, 0, 0, 0, 0, -145, 243, -32, -15, 601, 69, -107, 345, 10, 
-2, 45, -818, -168, -42, -1004, 133, 56, -972, 134, -152, 185, 51, -263, 252, 751, 
419, 653, -49, -156, -59, -212, -247, -294, 211, 186, 143, 421, 273, -98, -16, 128, 
-274, 260, 196, -455, 395, 262, 173, 222, 474, -43, 357, 267, -116, 0, 0, 0, 
0, 0, 0, 0, 0, 0, 643, 227, -87, 178, 85, -289, 371, 331, -329, 102, 
24, -43, 124, 74, -20, 311, 34, -87, 262, -212, -643, 196, -254, -357, 743, -97, 
-442, 95, -109, -22, -42, -217, -455, 740, 562, 233, 190, 91, -256, 233, -17, 7, 
267, 130, -89, 348, -187, 173, 303, -215, 180, 321, -151, 178, 279, 270, 759, 178, 
-14, 381, -200, -442, 71, 496, 143, -228, 14, -20, -57, -56, 33, -1, 346, 208, 
263, 19, -68, 31, -98, -195, -173, -144, -189, 173, -109, -386, 17, 298, 89, 135, 
122, 28, 172, 146, -363, 417, 286, 85, 452, 229, -237, -284, -113, -399, 14, 71, 
-4, 213, -16, 49, 199, -5, 13, 182, -28, 83, -222, 338, 136, 559, -277, -745, 
-375, 447, 119, 123, 665, 363, 429, 234, -154, -108, -635, -887, -950, -135, -181, 202, 
-315, 249, 347, 98, 300, 454, 167, 318, 13, 19, 227, -165, 447, 418, 375, 159, 
287, -33, 132, 144, -162, 206, 100, -94, 0, 0, 0, 0, 0, 0, 0, 0, 
0, -207, -335, 70, 15, -649, 287, 339, -312, 283, 0, 0, 0, 0, 0, 0, 
0, 0, 0, 288, -128, 78, 108, -63, 102, 144, -60, 72, -66, 184, -32, -229, 
-97, -276, -9, 119, -95, -398, -180, -28, -289, 2, 196, -70, 90, 114, 0, 0, 
0, 0, 0, 0, 0, 0, 0, -31, 4, 94, 116, -99, 295, 81, 150, 330, 
49, 12, -245, -3, 26, -167, -78, -134, -372, -313, -405, -340, -406, -512, -275, -391, 
-238, -160, -37, 18, 122, 48, 108, 119, 43, 111, 80, 331, 116, -14, 244, -120, 
-224, 623, 112, 18, -433, -118, -196, -189, -367, -259, -95, 0, 2, 0, 0, 0, 
0, 0, 0, 0, 0, 0, -18, -191, 43, -211, -372, -276, -12, -119, 206, -303, 
-165, -81, -240, -192, -122, -195, -163, -75, -33, 6, -239, 91, 32, -147, 65, 63, 
-85, 420, 475, 396, 467, 571, 572, 645, 684, 639, -279, -243, -41, -119, -150, 59, 
-328, -331, -498, -325, -103, -37, -263, -61, -16, -226, -27, 4, 73, -243, -55, -85, 
-504, -107, -68, -330, -149, 424, 234, 389, -21, -139, 230, 215, -150, 38, 781, 693, 
779, 375, 277, 422, 536, 455, 634, -519, -421, -440, 57, -120, -45, -92, -196, -56, 
-243, -307, -257, -159, -158, -299, -405, -335, -426, -760, -789, -772, -315, -298, -282, -363, 
-405, -380, 533, 93, 687, 486, 72, 400, 710, 242, 715, -143, -289, -20, 5, -107, 
-110, 271, 403, 266, -426, -740, -338, -730, -1118, -652, -685, -1068, -714, 296, 250, 300, 
258, 232, 203, 329, 171, 223, 141, 126, 630, -119, 66, 572, -97, 153, 374, 812, 
685, 908, 584, 297, 451, 528, 334, 394, 0, 0, 0, 0, 0, 0, 0, 0, 
0, -418, -220, 33, -308, -371, -205, -222, -230, 49, 0, 0, 0, 0, 0, 0, 
0, 0, 0, -562, -524, -552, -593, -507, -512, -551, -478, -455, -140, -318, -343, -172, 
-322, -354, 91, -33, -186, 84, 5, -41, 185, 196, 11, 123, 69, 34, 0, 0, 
0, 0, 0, 0, 0, 0, 0, 90, 50, 40, 120, 81, 76, -148, -8, -92, 
24, 26, 66, -35, -101, -43, -117, -205, -98, -1118, -313, 72, -325, 227, 511, 39, 
695, 986, -98, -50, 34, 52, 54, 118, 44, 65, 130, -1300, -494, -343, -596, 214, 
565, -955, -378, 4, 96, 3, 160, 210, 301, 491, -226, -423, -298, 0, 0, 0, 
0, 0, 0, 0, 0, 0, -283, -357, -464, -157, -71, -255, -379, -301, -617, -28, 
-54, -43, -43, -88, -77, -22, -72, -26, 147, -113, -302, -155, -414, -599, -360, -604, 
-778, -959, -479, -170, -327, 180, 321, -324, 108, 348, -108, -133, -361, -137, -13, -52, 
-439, -70, 442, 15, -111, 0, -28, -66, -2, -73, -113, 1, -1059, -195, -146, -352, 
170, -17, -112, 457, 304, -196, -194, -171, -233, -193, -107, -324, -272, -197, -562, -248, 
-274, 44, 262, 90, -20, 136, 16, -390, 198, 321, -284, 275, 248, 45, 363, 215, 
30, 34, -649, 167, 518, -173, 650, 870, -210, 98, 52, -36, -64, -33, -91, -141, 
-152, -174, -64, 36, -578, -231, 96, -610, -243, -59, -1006, -46, -118, -89, -67, -129, 
-63, -112, -164, -115, -681, -236, -156, -320, -16, 52, -324, -92, -32, -733, 230, 275, 
-62, 750, 826, 0, 775, 882, -1098, -297, -367, -272, 336, 39, -9, 654, 352, -1041, 
-497, -556, -376, 103, 47, -190, 305, 284, 0, 0, 0, 0, 0, 0, 0, 0, 
0, -680, -610, -289, -209, 6, 128, 209, 289, -61, 0, 0, 0, 0, 0, 0, 
0, 0, 0, -72, -91, -79, -151, -112, -103, -173, -171, -94, -264, 83, 152, 112, 
333, 325, 54, 267, 273, 18, 75, 48, 65, 76, 130, 30, 29, -7, 0, 0, 
0, 0, 0, 0, 0, 0, 0, 22, 22, 9, 43, 47, 13, 62, 107, 144, 
62, -67, -142, 205, -189, -202, 129, 77, -59, -199, 461, -1155, 101, 775, -1166, -200, 
443, -924, 106, 110, -20, 171, 8, 50, 189, 36, 28, 258, 333, -653, 337, 207, 
-870, -18, 236, -516, -365, -192, -472, -250, -250, 66, -231, -311, 332, 0, 0, 0, 
0, 0, 0, 0, 0, 0, 346, -236, 390, 363, -402, 343, 364, -369, 684, -113, 
-26, -35, -67, -45, -49, -78, 58, 7, -259, -119, 484, -136, 62, 234, -321, 58, 
443, 63, 70, -373, 80, 105, -219, -24, 6, 27, 56, -89, 68, 77, 99, -72, 
176, 136, -6, -257, 29, -276, -255, 35, -282, -213, -21, -258, 399, 151, -748, 610, 
110, -694, 308, 118, -448, 192, 135, 522, 140, -53, 162, 72, -77, 273, 86, -131, 
-90, 245, -160, -216, 202, -144, 69, 136, 350, -381, 229, 546, -206, 6, 104, 145, 
111, 70, -203, 112, 625, -345, 190, 298, -307, 72, 400, 293, 139, 286, -90, -103, 
30, -348, 459, -104, 587, 362, -271, 559, 296, -231, 880, 45, 265, -340, -5, 340, 
-123, -160, 135, -107, 206, 40, -363, 295, 18, -395, 240, -23, -171, 18, 235, -186, 
310, 85, -458, 7, 172, -225, 547, -333, 383, 653, -526, 430, 472, -205, 497, 136, 
-186, 139, 250, -164, -86, 214, -163, -201, 0, 0, 0, 0, 0, 0, 0, 0, 
0, 34, 45, -123, 235, 360, -394, -9, -65, -336, 0, 0, 0, 0, 0, 0, 
0, 0, 0, 23, 97, 116, -103, -313, -225, -196, -200, -147, 226, -85, 323, 299, 
-224, 248, 180, -84, 358, 159, -9, -211, 214, -46, -281, 3, -37, -238, 0, 0, 
0, 0, 0, 0, 0, 0, 0, -45, 17, 35, -132, 350, -70, -232, 39, -221, 
122, 56, 1045, -94, -278, 869, -240, -148, 934, -23, -198, -638, 325, 199, -919, 201, 
43, -528, 167, 93, 94, 259, -22, 136, 416, 56, 154, 383, -41, -317, 228, 149, 
-280, 103, 301, 95, -335, -145, -312, -138, -266, 146, 41, -57, 257, 0, 0, 0, 
0, 0, 0, 0, 0, 0, 79, -288, 388, 133, -490, 222, 360, -93, 724, -83, 
-136, 14, -21, -141, -5, -95, -55, 45, -262, -20, 790, -261, -74, 204, -743, -193, 
322, 238, -250, -145, 279, -230, 27, 496, -49, 163, 115, 186, 171, 192, 274, -63, 
-50, 262, 47, -298, -51, -229, -325, -11, -225, -395, -54, -194, 80, -7, -629, 278, 
121, -143, 180, -28, -365, -291, -70, 184, -352, -179, -43, -488, -46, 83, 81, -129, 
-73, 241, -80, -190, 432, -29, 71, 371, 81, -344, 396, 447, -565, 180, -3, -20, 
351, -43, -113, 136, 738, -545, 130, 330, -116, 27, 477, 780, -118, 315, 4, -149, 
-53, -289, 464, 427, 641, 228, 252, 215, 70, 378, 573, 52, 206, -242, 79, 296, 
-37, 116, 199, 62, 235, 197, 169, 347, 319, 460, 148, 54, 360, 19, -267, -453, 
399, -350, -611, 101, -91, -376, 506, -310, 48, 663, -473, 126, 776, -268, 70, 463, 
-67, 264, 395, -260, 20, 524, -142, -27, 0, 0, 0, 0, 0, 0, 0, 0, 
0, 458, -23, -142, 403, 455, -521, 183, 59, -117, 0, 0, 0, 0, 0, 0, 
0, 0, 0, -49, -20, 6, -369, -403, -161, -350, -184, -195, 195, -164, 129, 207, 
-254, 214, 250, -167, 246, 269, -102, -278, 499, -40, -413, 156, 43, -110, 0, 0, 
0, 0, 0, 0, 0, 0, 0, 27, -179, -158, 133, -58, -202, -77, 130, -264, 
84, -68, -222, 481, 171, 710, 2212, 1632, 2403, 142, 936, 497, -12, 705, 196, -632, 
-1167, -688, -228, -191, -82, -344, -309, -207, -322, -399, -588, 487, 1255, 1060, -43, 21, 
91, 485, -330, -89, -309, -134, 101, -197, -1021, -75, -97, 547, 6, 0, 0, 0, 
0, 0, 0, 0, 0, 0, 303, 202, 298, -86, -118, 9, -97, 68, 597, 199, 
451, 447, 71, 53, 111, 605, 374, 509, -1163, -522, -663, 72, 222, 525, 1184, 548, 
1240, 540, 630, 538, -3, -136, -341, -192, -478, -148, -251, -290, -5, 55, 394, 178, 
270, 25, -277, -68, 47, -99, 297, 102, -196, 863, 237, -288, 58, 624, 254, 125, 
212, -41, -73, -555, -136, 337, 883, 404, 207, 595, 163, 184, -265, -403, 285, 536, 
280, 150, 76, 124, -331, -289, 250, 298, 544, 480, -29, -15, 27, -99, -95, 16, 
277, 224, 26, 453, 1235, 203, 220, -540, 71, -539, -237, -992, 536, 951, 485, 234, 
-213, -338, 114, -2, -486, -269, -369, -304, 558, 361, 852, -422, -425, -195, 329, 336, 
331, 566, 119, -198, -384, 181, 266, -521, -108, -222, 33, 133, 324, 376, 1481, 323, 
-154, -62, 66, -752, -1269, -617, 28, 428, 300, -634, -207, -220, -813, -623, -396, 380, 
264, -127, 345, 372, 55, -78, -348, -232, 0, 0, 0, 0, 0, 0, 0, 0, 
0, 440, 164, 139, 58, 1083, 24, -269, -931, -486, 0, 0, 0, 0, 0, 0, 
0, 0, 0, 525, 1118, 510, 937, 941, 527, 674, 38, 175, 337, 460, 543, -157, 
-285, -191, 359, 258, 392, 672, 833, 346, 68, 405, 423, -778, -1169, -397, 0, 0, 
0, 0, 0, 0, 0, 0, 0, 547, 248, 356, 189, 1673, 244, -863, -840, -237, 
60, -12, -1002, -17, 161, -893, -1149, -928, -2021, -695, -533, -752, -814, -1248, -470, -984, 
-390, -721, 582, 401, 457, 606, 486, 515, 507, 409, 350, -5, 654, 138, 276, 403, 
529, -232, 274, -159, -22, 137, 237, -12, 274, 291, -534, -246, -571, 0, 0, 0, 
0, 0, 0, 0, 0, 0, -268, 84, 412, -173, -91, 187, 91, 21, -47, -453, 
-382, -243, -410, -378, -246, -496, -395, -329, -295, -229, -439, -164, -200, -311, -501, -388, 
-620, -203, 48, -97, 220, 241, -134, 17, 155, 4, -288, -175, -253, 127, 195, 212, 
-118, 58, -4, -870, -528, -67, -813, -494, -78, -878, -451, -7, -605, -144, 51, -454, 
-325, -797, -573, -484, -425, 171, -64, -284, 141, -66, -185, 52, 127, 6, -308, 146, 
147, -8, 144, 314, 125, 202, -315, -73, 254, 120, -116, 29, -115, -12, 169, -129, 
-163, 124, -736, -95, -210, -237, -147, 175, -436, -601, -585, -949, -251, -519, -678, -302, 
-427, -363, -638, -447, -1131, -398, -283, -634, -692, -652, -1249, 168, 108, 202, -52, -111, 
-122, -381, -302, -235, 3, 279, 77, 140, 280, -64, -63, -67, -34, -481, -413, -437, 
-547, -469, -257, -321, -158, -96, 728, 759, 247, 889, 599, 548, 823, 661, 534, -509, 
104, -606, -208, 544, 618, 55, 730, 161, 0, 0, 0, 0, 0, 0, 0, 0, 
0, -68, 138, 445, 40, -267, 442, -354, 385, 620, 0, 0, 0, 0, 0, 0, 
0, 0, 0, -543, -337, -212, -612, -416, -232, -911, -652, -384, 33, 319, -1, 206, 
556, 121, -158, 117, -203, 274, 106, 444, -1, -326, 65, 223, -38, 136, 0, 0, 
0, 0, 0, 0, 0, 0, 0, -288, 155, 290, -434, -198, 151, -483, -382, -63, 
6, 181, -107, -180, -5, -365, -359, -373, -898, 443, 40, 687, -76, -415, 83, -84, 
-354, 77, -202, 19, -487, 78, 373, -103, -721, -506, -669, 496, 173, 436, -233, -555, 
-116, 231, 287, 617, 117, 26, 117, 223, 650, 120, 120, 170, 38, 0, 0, 0, 
0, 0, 0, 0, 0, 0, -604, 85, 374, 231, 487, 872, -234, 129, 404, -72, 
34, -292, -128, 227, 76, -496, -20, 56, 220, 384, 1308, -413, 100, 583, -946, -153, 
26, 539, 400, 102, 584, 283, -45, 42, -554, -598, 1, -35, -26, -24, -97, 192, 
-68, 120, 153, 367, -22, 27, 376, 8, 71, 231, -45, 69, -338, -759, -791, 167, 
49, 99, 637, 518, 184, -812, -276, -472, -46, 138, -167, 109, 144, -500, 361, -194, 
-245, 233, -286, -15, 448, 179, 370, -9, -157, 506, -83, -406, 80, -167, -80, 136, 
-67, -156, 61, 121, -175, 50, -24, 198, 139, -410, -580, -399, -129, -332, -52, 20, 
32, 167, 424, 4, 22, 5, -209, -231, 105, -21, -366, -665, -1087, -855, 654, 619, 
705, -92, -166, 14, -1452, -891, -547, -371, 216, 869, 308, 928, 1655, 155, -77, 319, 
-140, -78, 32, 0, -225, 97, -560, 165, 310, -469, 265, -134, -345, -57, -380, 1598, 
504, 200, 300, -196, -209, 564, 341, 805, 0, 0, 0, 0, 0, 0, 0, 0, 
0, -83, -224, 407, -134, -229, 257, -34, 11, 184, 0, 0, 0, 0, 0, 0, 
0, 0, 0, -196, -497, -310, -63, -163, 44, 83, -37, 82, -43, -226, -420, 126, 
295, -69, 84, 29, -185, -7, -42, 92, 23, -171, 49, -26, -221, -1, 0, 0, 
0, 0, 0, 0, 0, 0, 0, -103, 99, 151, -73, -356, 118, 54, 183, 277, 
300, 656, 685, -407, -569, -288, -284, -76, -233, -601, -1150, -664, 275, 646, 110, 124, 
265, 193, 54, 112, 83, 36, -36, -41, 143, 151, 144, 98, -389, -565, -48, 191, 
191, -88, 446, 168, -26, -483, 104, 482, 1003, 360, 60, 203, 276, 0, 0, 0, 
0, 0, 0, 0, 0, 0, -49, 58, 386, -11, -92, -35, 47, 187, 235, -15, 
-140, -67, -97, -68, -113, -200, -39, -39, 627, 423, 814, 227, 249, 135, -832, -429, 
-459, -425, -522, -637, 214, 379, 291, 441, 625, 133, 436, 455, 85, -232, -157, -215, 
222, 32, 266, 153, 33, -111, 82, 88, -19, -129, -4, -14, -33, -367, -261, 47, 
-79, -102, 447, 553, 235, 369, 210, -3, -293, -522, -513, -119, 17, -51, 198, -51, 
149, 199, 101, 0, 489, 335, 154, -464, -863, -657, -8, 566, 82, -204, -188, -266, 
48, -141, -24, 6, 333, -26, 67, -243, 53, 1049, 662, 663, -262, -328, -35, -338, 
-395, -397, 55, 277, 592, -25, -46, -99, 81, 212, 56, 364, 325, 133, -103, 19, 
7, -196, -122, -87, -119, -206, -72, -250, -223, -156, -126, -79, -41, -509, -858, -338, 
120, -59, 12, 281, 724, 292, -260, -348, 5, -136, -230, -248, 474, 461, 291, 322, 
170, 382, -51, -113, -105, 504, 455, 485, 0, 0, 0, 0, 0, 0, 0, 0, 
0, -465, -416, -393, 122, 333, 46, 122, -102, 61, 0, 0, 0, 0, 0, 0, 
0, 0, 0, 569, 483, 255, -512, -867, -495, -111, 242, 81, -137, -87, -133, 23, 
-196, -54, 209, 261, 207, -579, -535, -355, -27, -108, -34, 115, 141, -3, 0, 0, 
0, 0, 0, 0, 0, 0, 0, -801, -493, -630, 10, -17, -19, -80, -420, -165, 
90, -133, 1006, -6, -625, 713, 785, 333, 1442, -53, 642, 93, 264, 1083, 324, -254, 
159, 0, -509, -459, -220, -623, -691, -289, -336, -365, -159, 64, 183, 238, -317, -72, 
228, 157, -289, -88, -73, -188, -20, 212, 72, 250, 107, 69, 507, 0, 0, 0, 
0, 0, 0, 0, 0, 0, 119, 401, 170, -323, 168, -246, 321, -64, 499, 247, 
180, 293, 294, 199, 231, 432, 298, 343, 9, 218, 503, 84, 255, 241, 192, 289, 
494, -231, -79, -188, -355, -186, 142, 251, 80, 230, -17, 37, 319, -14, 70, 178, 
205, 2, 59, 367, 356, -142, 365, 385, -130, 475, 352, -157, 566, 454, 452, 537, 
388, 229, 97, -130, 67, 304, 229, 60, -83, -66, -72, -27, -6, 10, 265, 268, 
385, 170, -51, 183, -73, 121, 140, -125, 235, -286, -70, 651, -120, -104, 140, 10, 
474, 609, 512, 520, 1826, 624, 384, 739, 870, 495, 575, 743, 194, 468, 461, 88, 
135, -59, -103, 234, 626, -386, -302, 333, 190, -30, 308, 4, 212, 24, -265, -18, 
-60, 172, 256, 173, 135, 199, 190, -8, -205, 0, -336, -570, -251, -67, 222, 40, 
296, 213, 9, 169, 131, -181, 4, 4, 9, -496, -539, 203, -228, -428, 354, 261, 
319, 400, 212, -152, 131, -150, -559, -165, 0, 0, 0, 0, 0, 0, 0, 0, 
0, 237, 361, -102, 258, 1065, -141, -16, 222, 133, 0, 0, 0, 0, 0, 0, 
0, 0, 0, 526, 533, 342, 225, -2, 22, 543, 426, 165, -20, -265, 111, -137, 
-751, -87, 299, -13, 350, -385, -135, -287, 94, 258, 44, -36, 108, -30, 0, 0, 
0, 0, 0, 0, 0, 0, 0, -69, -124, -374, 165, 808, -26, -56, 36, -216, 
-5, -45, -44, -73, 38, 14, -46, 115, 29, 719, 556, 55, 577, 284, -236, 101, 
-335, -1162, 171, -14, -23, 144, -3, -52, 54, -32, -143, -190, -7, -350, 17, 321, 
-143, -1221, -825, -1290, 230, 67, 39, 80, -36, -55, -336, -384, -58, 0, 0, 0, 
0, 0, 0, 0, 0, 0, -430, -617, -629, -217, -349, -407, -340, -194, -308, -39, 
-112, -46, -42, -84, -29, -22, -43, -15, -728, -592, -352, -581, -437, -212, -389, -225, 
15, 677, 83, -231, 348, 15, -333, -586, -506, -1151, -587, -20, 244, -719, -118, -69, 
-284, 39, 30, -94, -81, -4, -51, -40, -4, -6, -1, -3, 813, 551, -234, 328, 
176, -508, -224, -348, -1268, -277, -54, -126, -251, -38, -85, -335, -136, -139, 365, 99, 
-276, 447, 205, -217, -33, -188, -656, 931, 750, 159, 250, 237, -124, -292, -284, -762, 
-105, -10, -232, 440, 22, -219, 546, -85, -31, -194, -92, -42, -209, -118, -83, -101, 
-51, -43, -788, -233, -473, -677, -232, -350, -657, -142, -187, -147, -65, -43, -153, -85, 
-80, -132, -76, -18, 22, 4, -401, 109, 42, -323, -213, -313, -791, 1051, 1062, 433, 
976, 921, 307, 201, 33, -777, 372, 416, -265, 219, 205, -464, -293, -393, -1253, -92, 
121, -400, 111, 209, -375, -264, -364, -1060, 0, 0, 0, 0, 0, 0, 0, 0, 
0, 291, -27, -334, 690, 36, -334, 230, -407, -939, 0, 0, 0, 0, 0, 0, 
0, 0, 0, -191, -131, -85, -89, -46, -34, -77, -32, -92, 544, 480, 91, 493, 
432, 47, 91, 31, -368, 114, 57, 34, 68, 3, -44, 34, -56, -95, 0, 0, 
0, 0, 0, 0, 0, 0, 0, 12, 102, 45, -4, 78, 28, -14, 36, 0, 
457, 100, -595, 604, -628, -977, 843, -307, -1690, -644, -331, 183, -1071, 1148, 987, -874, 
21, 377, 16, -201, -75, -201, -313, 3, -409, -403, 94, 215, -199, 665, -241, -327, 
1048, 500, -265, 532, -556, -224, -134, -456, 1474, 69, 478, 28, 86, 0, 0, 0, 
0, 0, 0, 0, 0, 0, -422, 662, -27, -526, 876, 135, -212, 758, -232, 245, 
277, 43, -147, 151, -3, 293, 27, -158, 1296, 180, -914, 574, 319, -505, 1045, 147, 
-1442, -530, 119, 858, -304, 996, 712, -437, -315, 21, 150, -111, 31, 249, -340, 267, 
-143, -145, -38, 1188, 389, -201, 1084, 358, -131, 1289, 214, -110, -329, 13, 593, -330, 
450, 574, -57, 245, 312, 643, 179, 493, 50, -419, -31, 508, -12, 153, 40, 60, 
-126, -384, -113, -6, -408, -237, -405, -816, -22, 241, -553, 100, 392, -429, -254, -310, 
-100, 112, -252, -415, 133, -33, -334, 256, -73, 1970, 181, -937, 309, -1141, -781, -500, 
-487, -576, 198, 220, 418, 544, -344, 255, 528, -105, -178, 96, -399, -602, 167, -395, 
-507, 128, -320, -463, -221, -107, -152, 68, 198, 228, 347, 239, 363, -651, -248, 115, 
-1395, 197, 1407, -698, -29, 385, -339, -113, 741, -631, 426, 1093, -642, 149, 909, 633, 
445, 654, -212, 355, 812, -301, 57, 854, 0, 0, 0, 0, 0, 0, 0, 0, 
0, -568, -282, 19, -629, 589, 441, -342, -30, 300, 0, 0, 0, 0, 0, 0, 
0, 0, 0, 853, 172, -140, -251, -397, -328, -44, 164, -160, -261, 210, 205, -13, 
-114, 225, -219, 133, 83, -1550, -135, 341, -1555, -290, 914, -980, -134, 50, 0, 0, 
0, 0, 0, 0, 0, 0, 0, -1005, -199, -154, -847, 784, -128, -1048, 22, 7, 
59, 114, 399, -250, -55, 133, -468, -300, -115, 206, 193, 325, 185, 246, 221, -146, 
-194, 117, 176, 78, 58, 383, 145, 92, 499, 123, -75, -19, -114, -96, 135, 205, 
208, -842, -34, -58, -275, -96, -284, -448, -15, 43, -1437, -750, -1547, 0, 0, 0, 
0, 0, 0, 0, 0, 0, 209, 79, 33, 13, -100, 77, -565, -312, -220, -74, 
-82, -18, 26, -112, -114, 95, -103, -249, -327, 61, 73, -163, 164, 212, -427, 8, 
54, 77, -115, -328, 481, 127, 86, 456, 64, -397, -585, -32, 243, -560, -364, -526, 
-1452, -727, -844, -914, -231, -32, -887, -202, -36, -931, -127, 13, -197, -380, -460, 209, 
-64, -146, 304, -169, -357, -33, -30, 64, -92, 11, 101, -621, 11, 190, -108, -333, 
-412, 359, -86, -181, 1151, 135, -300, 614, 230, 196, 516, 230, 178, 307, -179, -489, 
-275, -86, -169, 124, 53, -84, 631, -7, -405, -141, -10, -27, -380, -405, -415, -315, 
-349, -268, -25, 259, 164, -242, 282, 383, -1624, -397, -107, 204, 297, 106, 153, 302, 
100, -369, 101, 6, -103, 10, 57, -49, 100, 110, -224, -144, -24, 126, -176, -33, 
237, -111, 44, 236, -29, 127, 65, -299, -447, 426, -126, -359, 1093, 166, -161, 117, 
10, -92, 310, 222, -68, 663, 395, 206, 0, 0, 0, 0, 0, 0, 0, 0, 
0, -194, -171, -393, -104, -23, -186, -848, -505, -346, 0, 0, 0, 0, 0, 0, 
0, 0, 0, -934, -318, -329, -887, -289, -246, -941, -238, -127, 502, 546, 275, 391, 
548, 275, 136, 277, 91, 156, -13, 79, 215, -104, -86, 217, -3, -182, 0, 0, 
0, 0, 0, 0, 0, 0, 0, 243, 577, 74, 110, 492, 34, -211, 239, -172};


const int conv2_b[32] = {
1272722, 21409474, 834896, 8515940, -1514799, 1770923, -1095348, 10665581, 
-1831559, 11038974, -1132072, 14799786, 15995913, 4637486, -10508133, -6585581, 
-5734273, 8213009, -1777428, -6095943, -3124707, 17317032, 1835425, -4218946, 
-1485716, 15064364, -5324003, 2058165, -8230328, 18148330, -978683, 5852354};


const short conv3_w[864] = {
1018, 1055, 1282, 822, 904, 983, 1045, 804, 847, -928, -1016, -1048, -847, -976, -890, -864, 
-850, -790, 821, 474, 900, 707, 265, 668, 735, 506, 717, 287, -212, -230, -59, -971, 
-599, 294, -203, -112, -830, -624, -319, -306, 66, 268, -16, 447, 591, -352, 433, 1901, 
-540, 367, 945, -1991, -1164, 349, -440, -198, 550, -879, -717, 72, -530, -79, 624, -724, 
-632, -197, -446, -716, -492, -484, -444, -37, -521, -400, -332, 561, 1531, 39, -133, 389, 
-442, -120, 69, 216, 94, 443, 426, 105, 594, 591, 157, 24, 5, 167, 42, -65, 
66, -159, -179, -626, -531, -1609, -207, -82, -821, 980, 691, -323, -407, -736, -457, -723, 
-1314, -742, -426, -680, -389, 552, 534, 888, -358, -634, -481, -400, -242, -253, 698, 298, 
150, 262, -102, -124, 228, 94, -149, -462, -691, -733, -343, -452, -437, -179, -286, -316, 
-204, -244, -479, -207, -137, -486, -380, -495, -664, 1151, 493, -237, 614, 165, -509, -257, 
-564, -1223, 437, 374, 312, 470, 448, 380, 482, 461, 365, -95, -6, -812, 27, 74, 
-1024, 636, 255, -203, -410, -777, -382, -601, -1693, -914, -242, -722, -165, -391, -728, -337, 
-808, -1467, -711, -469, -855, -219, 23, -334, 732, -442, -1021, 941, -324, -113, 852, -59, 
227, 1176, -366, -507, 668, -377, -296, 848, -215, -1344, -1055, -116, -1474, -1110, 2210, 1940, 
1574, -545, -741, -646, -543, -676, -644, -719, -911, -773, 2513, 1121, 472, 1009, -162, -1570, 
168, -1265, -2377, 832, 864, 770, -551, -1042, -738, -280, -416, -122, 281, 177, 677, -161, 
-531, 253, 687, 668, 1112, -370, -828, -349, -815, -1301, -642, -588, -1033, -612, 2717, 397, 
-170, 1612, -1312, -1282, 1628, -1175, -1130, -450, -305, -160, -679, -490, -283, -998, -898, -662, 
983, 1023, 1299, 920, 969, 1021, 1057, 841, 845, -936, -996, -1013, -1020, -1116, -1017, -906, 
-877, -774, 1238, 677, 1406, 896, 115, 785, 1380, 621, 1065, 129, -296, -199, -89, -843, 
-594, 104, -129, -54, -829, -610, -262, -293, 87, 300, 18, 363, 592, -1394, -940, -552, 
-253, 647, 50, 329, 1033, 1036, -448, -52, 480, -384, -107, 456, -535, 187, 548, -1092, 
-809, -441, -814, -911, -519, -725, -531, -144, -237, -252, -117, 590, 1936, -24, -225, 45, 
-725, -374, -306, 49, -425, -453, -27, -275, -29, 240, 197, 135, 37, 265, 218, -4, 
76, -78, -166, -875, -916, -1631, -402, -481, -787, 135, -286, -1077, -352, -644, -397, -707, 
-1219, -629, -543, -646, -379, 860, 963, 789, -150, -339, -584, -425, -245, -429, 473, 230, 
-55, 137, -108, -375, 121, 116, -241, -461, -688, -716, -297, -419, -428, -152, -262, -281, 
-233, -297, -552, -239, -161, -509, -434, -545, -720, 1197, 646, -64, 631, 220, -395, -209, 
-518, -1129, 315, 120, 212, 339, 241, 226, 428, 327, 338, 482, 507, -625, 630, 697, 
-536, 460, 365, -836, -82, 60, -114, 211, 14, -40, 34, 260, 28, -465, -966, -410, 
-1093, -1873, -989, -569, -990, -275, -51, -302, 443, -264, -939, 909, -49, -245, 636, -175, 
-201, 1086, -244, -879, 607, -678, -471, 630, -870, -1446, -663, -553, -808, -251, 1968, 2375, 
2396, -345, -423, -483, -413, -526, -584, -600, -750, -649, -285, 854, 1162, -535, 864, 378, 
-1367, -50, -257, 867, 1017, 872, -529, -833, -613, -454, -539, -128, 348, 141, 752, -167, 
-504, 266, 524, 341, 807, -443, -959, -281, -1026, -1655, -688, -649, -1142, -534, 2530, -308, 
-1170, 1909, -1306, -1616, 1940, -932, -1582, -460, -301, -147, -667, -486, -294, -1024, -902, -669, 
824, 908, 1043, 683, 813, 750, 938, 793, 706, -893, -1047, -1032, -1114, -1489, -1125, -915, 
-1033, -822, 892, 632, 903, 756, 56, 525, 721, 162, 525, 15, -293, -303, -49, -747, 
-446, 259, 41, -71, -633, -391, -165, -248, 140, 367, -13, 339, 470, 1557, 97, -1459, 
1572, 269, -1955, 1617, 257, -1617, -580, -4, 641, -346, -24, 562, -508, 352, 672, -806, 
-431, -120, -424, -498, -209, -315, -72, 185, -337, -363, 463, -13, 752, -66, -387, 45, 
54, -590, -652, -180, -939, -1223, -431, -670, -489, -21, 194, 164, 76, 307, 280, 66, 
98, -34, -75, -908, -609, -1033, -205, 12, -253, -630, -681, -1438, -34, 62, -31, -29, 
-92, 52, -123, 33, -9, 774, 903, 972, -263, -433, -580, -812, -334, -551, -195, -347, 
-613, -408, -668, -576, 24, -124, -501, -516, -815, -831, -415, -664, -564, -201, -323, -343, 
-108, -98, -363, -85, 23, -343, -380, -446, -599, 1222, 801, 57, 699, 335, -316, -200, 
-425, -1000, 207, 18, 224, 268, 202, 210, 372, 276, 322, 848, 801, 288, 725, 696, 
-178, -516, -585, -1230, 219, 736, 339, 731, 1231, 647, 348, 886, 293, -498, -1053, -412, 
-1154, -2059, -1042, -565, -1059, -332, 96, -631, 308, -216, -1352, 344, 149, -459, 509, -602, 
-467, 911, -552, -929, 617, -1165, -302, 707, -1023, -1640, -1145, -709, -1037, -632, 2082, 2350, 
2264, -152, -338, -374, -271, -569, -474, -439, -642, -480, -1748, -962, -1451, 124, 1139, 173, 
610, 1423, 621, 940, 1241, 938, -390, -669, -527, -199, -333, -9, 570, 427, 1082, 137, 
-357, 573, 477, 58, 546, -499, -1027, -309, -1165, -1889, -823, -750, -1309, -602, 2028, -634, 
-820, 1638, -1560, -2126, 1841, -866, -1111, -496, -357, -203, -693, -479, -235, -1018, -882, -607};


const int conv3_b[3] = {
-19126272, -13513499, -30221052};

